digraph Tree {
node [shape=box, style="filled, rounded", color="black", fontname=helvetica] ;
edge [fontname=helvetica] ;
0 [label="U-V <= 1.54\ngini = 0.5\nsamples = 272\nvalue = [209, 214]\nclass = star forming", fillcolor="#fafdfe"] ;
1 [label="V-J <= 1.28\ngini = 0.28\nsamples = 137\nvalue = [34, 167]\nclass = star forming", fillcolor="#61b1ea"] ;
0 -> 1 [labeldistance=2.5, labelangle=45, headlabel="True"] ;
9 [label="V-J <= 1.25\ngini = 0.33\nsamples = 90\nvalue = [27, 104]\nclass = star forming", fillcolor="#6cb6ec"] ;
1 -> 9 ;
11 [label="V-J <= 1.18\ngini = 0.3\nsamples = 87\nvalue = [24, 104]\nclass = star forming", fillcolor="#67b4eb"] ;
9 -> 11 ;
13 [label="U-V <= 1.45\ngini = 0.27\nsamples = 74\nvalue = [18, 94]\nclass = star forming", fillcolor="#5fb0ea"] ;
11 -> 13 ;
15 [label="U-V <= 1.04\ngini = 0.18\nsamples = 65\nvalue = [10, 90]\nclass = star forming", fillcolor="#4fa8e8"] ;
13 -> 15 ;
21 [label="gini = 0.04\nsamples = 35\nvalue = [1, 54]\nclass = star forming", fillcolor="#3d9fe5"] ;
15 -> 21 ;
22 [label="V-J <= 0.23\ngini = 0.32\nsamples = 30\nvalue = [9, 36]\nclass = star forming", fillcolor="#6ab6ec"] ;
15 -> 22 ;
25 [label="gini = 0.0\nsamples = 1\nvalue = [1, 0]\nclass = quiescent", fillcolor="#e58139"] ;
22 -> 25 ;
26 [label="U-V <= 1.05\ngini = 0.3\nsamples = 29\nvalue = [8, 36]\nclass = star forming", fillcolor="#65b3eb"] ;
22 -> 26 ;
27 [label="gini = 0.0\nsamples = 2\nvalue = [2, 0]\nclass = quiescent", fillcolor="#e58139"] ;
26 -> 27 ;
28 [label="gini = 0.24\nsamples = 27\nvalue = [6, 36]\nclass = star forming", fillcolor="#5aade9"] ;
26 -> 28 ;
16 [label="V-J <= 0.85\ngini = 0.44\nsamples = 9\nvalue = [8, 4]\nclass = quiescent", fillcolor="#f2c09c"] ;
13 -> 16 ;
17 [label="gini = 0.0\nsamples = 5\nvalue = [7, 0]\nclass = quiescent", fillcolor="#e58139"] ;
16 -> 17 ;
18 [label="U-V <= 1.48\ngini = 0.32\nsamples = 4\nvalue = [1, 4]\nclass = star forming", fillcolor="#6ab6ec"] ;
16 -> 18 ;
23 [label="gini = 0.0\nsamples = 1\nvalue = [1, 0]\nclass = quiescent", fillcolor="#e58139"] ;
18 -> 23 ;
24 [label="gini = 0.0\nsamples = 3\nvalue = [0, 4]\nclass = star forming", fillcolor="#399de5"] ;
18 -> 24 ;
14 [label="U-V <= 1.49\ngini = 0.47\nsamples = 13\nvalue = [6, 10]\nclass = star forming", fillcolor="#b0d8f5"] ;
11 -> 14 ;
19 [label="gini = 0.2\nsamples = 7\nvalue = [1, 8]\nclass = star forming", fillcolor="#52a9e8"] ;
14 -> 19 ;
20 [label="gini = 0.41\nsamples = 6\nvalue = [5, 2]\nclass = quiescent", fillcolor="#efb388"] ;
14 -> 20 ;
12 [label="gini = 0.0\nsamples = 3\nvalue = [3, 0]\nclass = quiescent", fillcolor="#e58139"] ;
9 -> 12 ;
10 [label="gini = 0.18\nsamples = 47\nvalue = [7, 63]\nclass = star forming", fillcolor="#4fa8e8"] ;
1 -> 10 ;
2 [label="V-J <= 1.6\ngini = 0.33\nsamples = 135\nvalue = [175, 47]\nclass = quiescent", fillcolor="#eca36e"] ;
0 -> 2 [labeldistance=2.5, labelangle=-45, headlabel="False"] ;
3 [label="gini = 0.19\nsamples = 114\nvalue = [166, 20]\nclass = quiescent", fillcolor="#e89051"] ;
2 -> 3 ;
4 [label="U-V <= 1.74\ngini = 0.38\nsamples = 21\nvalue = [9, 27]\nclass = star forming", fillcolor="#7bbeee"] ;
2 -> 4 ;
5 [label="gini = 0.0\nsamples = 8\nvalue = [0, 14]\nclass = star forming", fillcolor="#399de5"] ;
4 -> 5 ;
6 [label="V-J <= 1.7\ngini = 0.48\nsamples = 13\nvalue = [9, 13]\nclass = star forming", fillcolor="#c2e1f7"] ;
4 -> 6 ;
7 [label="gini = 0.34\nsamples = 7\nvalue = [3, 11]\nclass = star forming", fillcolor="#6fb8ec"] ;
6 -> 7 ;
8 [label="gini = 0.38\nsamples = 6\nvalue = [6, 2]\nclass = quiescent", fillcolor="#eeab7b"] ;
6 -> 8 ;
}