digraph Tree {
node [shape=box, style="filled, rounded", color="black", fontname=helvetica] ;
edge [fontname=helvetica] ;
0 [label="U-V <= 1.48\ngini = 0.5\nsamples = 270\nvalue = [226, 197]\nclass = quiescent", fillcolor="#fcefe6"] ;
1 [label="U-V <= 1.03\ngini = 0.35\nsamples = 103\nvalue = [37, 128]\nclass = star forming", fillcolor="#72b9ed"] ;
0 -> 1 [labeldistance=2.5, labelangle=45, headlabel="True"] ;
2 [label="V-J <= 0.54\ngini = 0.11\nsamples = 31\nvalue = [3, 49]\nclass = star forming", fillcolor="#45a3e7"] ;
1 -> 2 ;
3 [label="U-V <= 0.76\ngini = 0.42\nsamples = 7\nvalue = [3, 7]\nclass = star forming", fillcolor="#8ec7f0"] ;
2 -> 3 ;
4 [label="gini = 0.0\nsamples = 5\nvalue = [0, 6]\nclass = star forming", fillcolor="#399de5"] ;
3 -> 4 ;
5 [label="V-J <= 0.45\ngini = 0.38\nsamples = 2\nvalue = [3, 1]\nclass = quiescent", fillcolor="#eeab7b"] ;
3 -> 5 ;
6 [label="gini = 0.0\nsamples = 1\nvalue = [0, 1]\nclass = star forming", fillcolor="#399de5"] ;
5 -> 6 ;
7 [label="gini = 0.0\nsamples = 1\nvalue = [3, 0]\nclass = quiescent", fillcolor="#e58139"] ;
5 -> 7 ;
8 [label="gini = 0.0\nsamples = 24\nvalue = [0, 42]\nclass = star forming", fillcolor="#399de5"] ;
2 -> 8 ;
9 [label="U-V <= 1.11\ngini = 0.42\nsamples = 72\nvalue = [34, 79]\nclass = star forming", fillcolor="#8ec7f0"] ;
1 -> 9 ;
10 [label="U-V <= 1.07\ngini = 0.46\nsamples = 13\nvalue = [14, 8]\nclass = quiescent", fillcolor="#f4c9aa"] ;
9 -> 10 ;
11 [label="U-V <= 1.05\ngini = 0.42\nsamples = 7\nvalue = [3, 7]\nclass = star forming", fillcolor="#8ec7f0"] ;
10 -> 11 ;
12 [label="gini = 0.0\nsamples = 2\nvalue = [3, 0]\nclass = quiescent", fillcolor="#e58139"] ;
11 -> 12 ;
13 [label="gini = 0.0\nsamples = 5\nvalue = [0, 7]\nclass = star forming", fillcolor="#399de5"] ;
11 -> 13 ;
14 [label="U-V <= 1.1\ngini = 0.15\nsamples = 6\nvalue = [11, 1]\nclass = quiescent", fillcolor="#e78c4b"] ;
10 -> 14 ;
15 [label="gini = 0.0\nsamples = 4\nvalue = [10, 0]\nclass = quiescent", fillcolor="#e58139"] ;
14 -> 15 ;
16 [label="V-J <= 1.03\ngini = 0.5\nsamples = 2\nvalue = [1, 1]\nclass = quiescent", fillcolor="#ffffff"] ;
14 -> 16 ;
17 [label="gini = 0.0\nsamples = 1\nvalue = [1, 0]\nclass = quiescent", fillcolor="#e58139"] ;
16 -> 17 ;
18 [label="gini = 0.0\nsamples = 1\nvalue = [0, 1]\nclass = star forming", fillcolor="#399de5"] ;
16 -> 18 ;
19 [label="U-V <= 1.35\ngini = 0.34\nsamples = 59\nvalue = [20, 71]\nclass = star forming", fillcolor="#71b9ec"] ;
9 -> 19 ;
20 [label="V-J <= 0.93\ngini = 0.23\nsamples = 34\nvalue = [7, 47]\nclass = star forming", fillcolor="#56ace9"] ;
19 -> 20 ;
21 [label="gini = 0.0\nsamples = 1\nvalue = [1, 0]\nclass = quiescent", fillcolor="#e58139"] ;
20 -> 21 ;
22 [label="U-V <= 1.22\ngini = 0.2\nsamples = 33\nvalue = [6, 47]\nclass = star forming", fillcolor="#52aae8"] ;
20 -> 22 ;
23 [label="U-V <= 1.18\ngini = 0.36\nsamples = 10\nvalue = [3, 10]\nclass = star forming", fillcolor="#74baed"] ;
22 -> 23 ;
24 [label="V-J <= 1.1\ngini = 0.18\nsamples = 7\nvalue = [1, 9]\nclass = star forming", fillcolor="#4fa8e8"] ;
23 -> 24 ;
25 [label="U-V <= 1.14\ngini = 0.5\nsamples = 2\nvalue = [1, 1]\nclass = quiescent", fillcolor="#ffffff"] ;
24 -> 25 ;
26 [label="gini = 0.0\nsamples = 1\nvalue = [0, 1]\nclass = star forming", fillcolor="#399de5"] ;
25 -> 26 ;
27 [label="gini = 0.0\nsamples = 1\nvalue = [1, 0]\nclass = quiescent", fillcolor="#e58139"] ;
25 -> 27 ;
28 [label="gini = 0.0\nsamples = 5\nvalue = [0, 8]\nclass = star forming", fillcolor="#399de5"] ;
24 -> 28 ;
29 [label="V-J <= 1.19\ngini = 0.44\nsamples = 3\nvalue = [2, 1]\nclass = quiescent", fillcolor="#f2c09c"] ;
23 -> 29 ;
30 [label="gini = 0.0\nsamples = 1\nvalue = [0, 1]\nclass = star forming", fillcolor="#399de5"] ;
29 -> 30 ;
31 [label="gini = 0.0\nsamples = 2\nvalue = [2, 0]\nclass = quiescent", fillcolor="#e58139"] ;
29 -> 31 ;
32 [label="V-J <= 1.42\ngini = 0.14\nsamples = 23\nvalue = [3, 37]\nclass = star forming", fillcolor="#49a5e7"] ;
22 -> 32 ;
33 [label="V-J <= 1.37\ngini = 0.22\nsamples = 15\nvalue = [3, 21]\nclass = star forming", fillcolor="#55abe9"] ;
32 -> 33 ;
34 [label="U-V <= 1.23\ngini = 0.16\nsamples = 14\nvalue = [2, 21]\nclass = star forming", fillcolor="#4ca6e7"] ;
33 -> 34 ;
35 [label="V-J <= 1.26\ngini = 0.38\nsamples = 3\nvalue = [1, 3]\nclass = star forming", fillcolor="#7bbeee"] ;
34 -> 35 ;
36 [label="gini = 0.0\nsamples = 2\nvalue = [0, 3]\nclass = star forming", fillcolor="#399de5"] ;
35 -> 36 ;
37 [label="gini = 0.0\nsamples = 1\nvalue = [1, 0]\nclass = quiescent", fillcolor="#e58139"] ;
35 -> 37 ;
38 [label="U-V <= 1.29\ngini = 0.1\nsamples = 11\nvalue = [1, 18]\nclass = star forming", fillcolor="#44a2e6"] ;
34 -> 38 ;
39 [label="gini = 0.0\nsamples = 5\nvalue = [0, 9]\nclass = star forming", fillcolor="#399de5"] ;
38 -> 39 ;
40 [label="U-V <= 1.29\ngini = 0.18\nsamples = 6\nvalue = [1, 9]\nclass = star forming", fillcolor="#4fa8e8"] ;
38 -> 40 ;
41 [label="gini = 0.0\nsamples = 1\nvalue = [1, 0]\nclass = quiescent", fillcolor="#e58139"] ;
40 -> 41 ;
42 [label="gini = 0.0\nsamples = 5\nvalue = [0, 9]\nclass = star forming", fillcolor="#399de5"] ;
40 -> 42 ;
43 [label="gini = 0.0\nsamples = 1\nvalue = [1, 0]\nclass = quiescent", fillcolor="#e58139"] ;
33 -> 43 ;
44 [label="gini = 0.0\nsamples = 8\nvalue = [0, 16]\nclass = star forming", fillcolor="#399de5"] ;
32 -> 44 ;
45 [label="V-J <= 0.82\ngini = 0.46\nsamples = 25\nvalue = [13, 24]\nclass = star forming", fillcolor="#a4d2f3"] ;
19 -> 45 ;
46 [label="gini = 0.0\nsamples = 3\nvalue = [3, 0]\nclass = quiescent", fillcolor="#e58139"] ;
45 -> 46 ;
47 [label="U-V <= 1.47\ngini = 0.42\nsamples = 22\nvalue = [10, 24]\nclass = star forming", fillcolor="#8bc6f0"] ;
45 -> 47 ;
48 [label="V-J <= 1.26\ngini = 0.46\nsamples = 18\nvalue = [10, 18]\nclass = star forming", fillcolor="#a7d3f3"] ;
47 -> 48 ;
49 [label="U-V <= 1.44\ngini = 0.22\nsamples = 5\nvalue = [1, 7]\nclass = star forming", fillcolor="#55abe9"] ;
48 -> 49 ;
50 [label="U-V <= 1.43\ngini = 0.44\nsamples = 3\nvalue = [1, 2]\nclass = star forming", fillcolor="#9ccef2"] ;
49 -> 50 ;
51 [label="gini = 0.0\nsamples = 2\nvalue = [0, 2]\nclass = star forming", fillcolor="#399de5"] ;
50 -> 51 ;
52 [label="gini = 0.0\nsamples = 1\nvalue = [1, 0]\nclass = quiescent", fillcolor="#e58139"] ;
50 -> 52 ;
53 [label="gini = 0.0\nsamples = 2\nvalue = [0, 5]\nclass = star forming", fillcolor="#399de5"] ;
49 -> 53 ;
54 [label="U-V <= 1.42\ngini = 0.5\nsamples = 13\nvalue = [9, 11]\nclass = star forming", fillcolor="#dbedfa"] ;
48 -> 54 ;
55 [label="U-V <= 1.4\ngini = 0.38\nsamples = 8\nvalue = [3, 9]\nclass = star forming", fillcolor="#7bbeee"] ;
54 -> 55 ;
56 [label="V-J <= 1.67\ngini = 0.47\nsamples = 6\nvalue = [3, 5]\nclass = star forming", fillcolor="#b0d8f5"] ;
55 -> 56 ;
57 [label="gini = 0.0\nsamples = 3\nvalue = [0, 4]\nclass = star forming", fillcolor="#399de5"] ;
56 -> 57 ;
58 [label="U-V <= 1.37\ngini = 0.38\nsamples = 3\nvalue = [3, 1]\nclass = quiescent", fillcolor="#eeab7b"] ;
56 -> 58 ;
59 [label="gini = 0.0\nsamples = 1\nvalue = [2, 0]\nclass = quiescent", fillcolor="#e58139"] ;
58 -> 59 ;
60 [label="V-J <= 1.76\ngini = 0.5\nsamples = 2\nvalue = [1, 1]\nclass = quiescent", fillcolor="#ffffff"] ;
58 -> 60 ;
61 [label="gini = 0.0\nsamples = 1\nvalue = [1, 0]\nclass = quiescent", fillcolor="#e58139"] ;
60 -> 61 ;
62 [label="gini = 0.0\nsamples = 1\nvalue = [0, 1]\nclass = star forming", fillcolor="#399de5"] ;
60 -> 62 ;
63 [label="gini = 0.0\nsamples = 2\nvalue = [0, 4]\nclass = star forming", fillcolor="#399de5"] ;
55 -> 63 ;
64 [label="U-V <= 1.42\ngini = 0.38\nsamples = 5\nvalue = [6, 2]\nclass = quiescent", fillcolor="#eeab7b"] ;
54 -> 64 ;
65 [label="gini = 0.0\nsamples = 1\nvalue = [3, 0]\nclass = quiescent", fillcolor="#e58139"] ;
64 -> 65 ;
66 [label="U-V <= 1.46\ngini = 0.48\nsamples = 4\nvalue = [3, 2]\nclass = quiescent", fillcolor="#f6d5bd"] ;
64 -> 66 ;
67 [label="U-V <= 1.44\ngini = 0.44\nsamples = 3\nvalue = [1, 2]\nclass = star forming", fillcolor="#9ccef2"] ;
66 -> 67 ;
68 [label="gini = 0.0\nsamples = 1\nvalue = [0, 1]\nclass = star forming", fillcolor="#399de5"] ;
67 -> 68 ;
69 [label="U-V <= 1.45\ngini = 0.5\nsamples = 2\nvalue = [1, 1]\nclass = quiescent", fillcolor="#ffffff"] ;
67 -> 69 ;
70 [label="gini = 0.0\nsamples = 1\nvalue = [1, 0]\nclass = quiescent", fillcolor="#e58139"] ;
69 -> 70 ;
71 [label="gini = 0.0\nsamples = 1\nvalue = [0, 1]\nclass = star forming", fillcolor="#399de5"] ;
69 -> 71 ;
72 [label="gini = 0.0\nsamples = 1\nvalue = [2, 0]\nclass = quiescent", fillcolor="#e58139"] ;
66 -> 72 ;
73 [label="gini = 0.0\nsamples = 4\nvalue = [0, 6]\nclass = star forming", fillcolor="#399de5"] ;
47 -> 73 ;
74 [label="U-V <= 1.67\ngini = 0.39\nsamples = 167\nvalue = [189, 69]\nclass = quiescent", fillcolor="#eeaf81"] ;
0 -> 74 [labeldistance=2.5, labelangle=-45, headlabel="False"] ;
75 [label="V-J <= 1.27\ngini = 0.48\nsamples = 58\nvalue = [51, 33]\nclass = quiescent", fillcolor="#f6d3b9"] ;
74 -> 75 ;
76 [label="V-J <= 1.03\ngini = 0.18\nsamples = 32\nvalue = [46, 5]\nclass = quiescent", fillcolor="#e88f4f"] ;
75 -> 76 ;
77 [label="U-V <= 1.58\ngini = 0.28\nsamples = 20\nvalue = [25, 5]\nclass = quiescent", fillcolor="#ea9a61"] ;
76 -> 77 ;
78 [label="V-J <= 0.93\ngini = 0.38\nsamples = 13\nvalue = [15, 5]\nclass = quiescent", fillcolor="#eeab7b"] ;
77 -> 78 ;
79 [label="gini = 0.0\nsamples = 10\nvalue = [15, 0]\nclass = quiescent", fillcolor="#e58139"] ;
78 -> 79 ;
80 [label="gini = 0.0\nsamples = 3\nvalue = [0, 5]\nclass = star forming", fillcolor="#399de5"] ;
78 -> 80 ;
81 [label="gini = 0.0\nsamples = 7\nvalue = [10, 0]\nclass = quiescent", fillcolor="#e58139"] ;
77 -> 81 ;
82 [label="gini = 0.0\nsamples = 12\nvalue = [21, 0]\nclass = quiescent", fillcolor="#e58139"] ;
76 -> 82 ;
83 [label="V-J <= 1.47\ngini = 0.26\nsamples = 26\nvalue = [5, 28]\nclass = star forming", fillcolor="#5caeea"] ;
75 -> 83 ;
84 [label="V-J <= 1.36\ngini = 0.48\nsamples = 5\nvalue = [2, 3]\nclass = star forming", fillcolor="#bddef6"] ;
83 -> 84 ;
85 [label="gini = 0.0\nsamples = 3\nvalue = [0, 3]\nclass = star forming", fillcolor="#399de5"] ;
84 -> 85 ;
86 [label="gini = 0.0\nsamples = 2\nvalue = [2, 0]\nclass = quiescent", fillcolor="#e58139"] ;
84 -> 86 ;
87 [label="V-J <= 1.8\ngini = 0.19\nsamples = 21\nvalue = [3, 25]\nclass = star forming", fillcolor="#51a9e8"] ;
83 -> 87 ;
88 [label="gini = 0.0\nsamples = 12\nvalue = [0, 15]\nclass = star forming", fillcolor="#399de5"] ;
87 -> 88 ;
89 [label="V-J <= 1.83\ngini = 0.36\nsamples = 9\nvalue = [3, 10]\nclass = star forming", fillcolor="#74baed"] ;
87 -> 89 ;
90 [label="gini = 0.0\nsamples = 1\nvalue = [2, 0]\nclass = quiescent", fillcolor="#e58139"] ;
89 -> 90 ;
91 [label="U-V <= 1.5\ngini = 0.17\nsamples = 8\nvalue = [1, 10]\nclass = star forming", fillcolor="#4da7e8"] ;
89 -> 91 ;
92 [label="gini = 0.0\nsamples = 1\nvalue = [1, 0]\nclass = quiescent", fillcolor="#e58139"] ;
91 -> 92 ;
93 [label="gini = 0.0\nsamples = 7\nvalue = [0, 10]\nclass = star forming", fillcolor="#399de5"] ;
91 -> 93 ;
94 [label="V-J <= 1.43\ngini = 0.33\nsamples = 109\nvalue = [138, 36]\nclass = quiescent", fillcolor="#eca26d"] ;
74 -> 94 ;
95 [label="V-J <= 1.32\ngini = 0.11\nsamples = 76\nvalue = [118, 7]\nclass = quiescent", fillcolor="#e78845"] ;
94 -> 95 ;
96 [label="V-J <= 1.0\ngini = 0.05\nsamples = 66\nvalue = [108, 3]\nclass = quiescent", fillcolor="#e6843e"] ;
95 -> 96 ;
97 [label="U-V <= 1.7\ngini = 0.2\nsamples = 14\nvalue = [16, 2]\nclass = quiescent", fillcolor="#e89152"] ;
96 -> 97 ;
98 [label="U-V <= 1.69\ngini = 0.44\nsamples = 3\nvalue = [2, 1]\nclass = quiescent", fillcolor="#f2c09c"] ;
97 -> 98 ;
99 [label="gini = 0.0\nsamples = 2\nvalue = [2, 0]\nclass = quiescent", fillcolor="#e58139"] ;
98 -> 99 ;
100 [label="gini = 0.0\nsamples = 1\nvalue = [0, 1]\nclass = star forming", fillcolor="#399de5"] ;
98 -> 100 ;
101 [label="U-V <= 1.75\ngini = 0.12\nsamples = 11\nvalue = [14, 1]\nclass = quiescent", fillcolor="#e78a47"] ;
97 -> 101 ;
102 [label="gini = 0.0\nsamples = 5\nvalue = [8, 0]\nclass = quiescent", fillcolor="#e58139"] ;
101 -> 102 ;
103 [label="U-V <= 1.77\ngini = 0.24\nsamples = 6\nvalue = [6, 1]\nclass = quiescent", fillcolor="#e9965a"] ;
101 -> 103 ;
104 [label="gini = 0.0\nsamples = 1\nvalue = [0, 1]\nclass = star forming", fillcolor="#399de5"] ;
103 -> 104 ;
105 [label="gini = 0.0\nsamples = 5\nvalue = [6, 0]\nclass = quiescent", fillcolor="#e58139"] ;
103 -> 105 ;
106 [label="U-V <= 2.22\ngini = 0.02\nsamples = 52\nvalue = [92, 1]\nclass = quiescent", fillcolor="#e5823b"] ;
96 -> 106 ;
107 [label="gini = 0.0\nsamples = 49\nvalue = [90, 0]\nclass = quiescent", fillcolor="#e58139"] ;
106 -> 107 ;
108 [label="U-V <= 2.27\ngini = 0.44\nsamples = 3\nvalue = [2, 1]\nclass = quiescent", fillcolor="#f2c09c"] ;
106 -> 108 ;
109 [label="gini = 0.0\nsamples = 1\nvalue = [0, 1]\nclass = star forming", fillcolor="#399de5"] ;
108 -> 109 ;
110 [label="gini = 0.0\nsamples = 2\nvalue = [2, 0]\nclass = quiescent", fillcolor="#e58139"] ;
108 -> 110 ;
111 [label="U-V <= 1.77\ngini = 0.41\nsamples = 10\nvalue = [10, 4]\nclass = quiescent", fillcolor="#efb388"] ;
95 -> 111 ;
112 [label="V-J <= 1.37\ngini = 0.44\nsamples = 3\nvalue = [2, 4]\nclass = star forming", fillcolor="#9ccef2"] ;
111 -> 112 ;
113 [label="gini = 0.0\nsamples = 1\nvalue = [0, 4]\nclass = star forming", fillcolor="#399de5"] ;
112 -> 113 ;
114 [label="gini = 0.0\nsamples = 2\nvalue = [2, 0]\nclass = quiescent", fillcolor="#e58139"] ;
112 -> 114 ;
115 [label="gini = 0.0\nsamples = 7\nvalue = [8, 0]\nclass = quiescent", fillcolor="#e58139"] ;
111 -> 115 ;
116 [label="U-V <= 1.99\ngini = 0.48\nsamples = 33\nvalue = [20, 29]\nclass = star forming", fillcolor="#c2e1f7"] ;
94 -> 116 ;
117 [label="V-J <= 1.57\ngini = 0.46\nsamples = 28\nvalue = [15, 27]\nclass = star forming", fillcolor="#a7d3f3"] ;
116 -> 117 ;
118 [label="U-V <= 1.76\ngini = 0.2\nsamples = 6\nvalue = [1, 8]\nclass = star forming", fillcolor="#52a9e8"] ;
117 -> 118 ;
119 [label="V-J <= 1.46\ngini = 0.5\nsamples = 2\nvalue = [1, 1]\nclass = quiescent", fillcolor="#ffffff"] ;
118 -> 119 ;
120 [label="gini = 0.0\nsamples = 1\nvalue = [0, 1]\nclass = star forming", fillcolor="#399de5"] ;
119 -> 120 ;
121 [label="gini = 0.0\nsamples = 1\nvalue = [1, 0]\nclass = quiescent", fillcolor="#e58139"] ;
119 -> 121 ;
122 [label="gini = 0.0\nsamples = 4\nvalue = [0, 7]\nclass = star forming", fillcolor="#399de5"] ;
118 -> 122 ;
123 [label="V-J <= 1.64\ngini = 0.49\nsamples = 22\nvalue = [14, 19]\nclass = star forming", fillcolor="#cbe5f8"] ;
117 -> 123 ;
124 [label="U-V <= 1.93\ngini = 0.2\nsamples = 4\nvalue = [8, 1]\nclass = quiescent", fillcolor="#e89152"] ;
123 -> 124 ;
125 [label="gini = 0.0\nsamples = 3\nvalue = [8, 0]\nclass = quiescent", fillcolor="#e58139"] ;
124 -> 125 ;
126 [label="gini = 0.0\nsamples = 1\nvalue = [0, 1]\nclass = star forming", fillcolor="#399de5"] ;
124 -> 126 ;
127 [label="V-J <= 1.69\ngini = 0.38\nsamples = 18\nvalue = [6, 18]\nclass = star forming", fillcolor="#7bbeee"] ;
123 -> 127 ;
128 [label="gini = 0.0\nsamples = 8\nvalue = [0, 11]\nclass = star forming", fillcolor="#399de5"] ;
127 -> 128 ;
129 [label="V-J <= 1.7\ngini = 0.5\nsamples = 10\nvalue = [6, 7]\nclass = star forming", fillcolor="#e3f1fb"] ;
127 -> 129 ;
130 [label="gini = 0.0\nsamples = 1\nvalue = [3, 0]\nclass = quiescent", fillcolor="#e58139"] ;
129 -> 130 ;
131 [label="V-J <= 1.72\ngini = 0.42\nsamples = 9\nvalue = [3, 7]\nclass = star forming", fillcolor="#8ec7f0"] ;
129 -> 131 ;
132 [label="gini = 0.0\nsamples = 3\nvalue = [0, 3]\nclass = star forming", fillcolor="#399de5"] ;
131 -> 132 ;
133 [label="U-V <= 1.87\ngini = 0.49\nsamples = 6\nvalue = [3, 4]\nclass = star forming", fillcolor="#cee6f8"] ;
131 -> 133 ;
134 [label="V-J <= 1.74\ngini = 0.32\nsamples = 5\nvalue = [1, 4]\nclass = star forming", fillcolor="#6ab6ec"] ;
133 -> 134 ;
135 [label="gini = 0.0\nsamples = 1\nvalue = [1, 0]\nclass = quiescent", fillcolor="#e58139"] ;
134 -> 135 ;
136 [label="gini = 0.0\nsamples = 4\nvalue = [0, 4]\nclass = star forming", fillcolor="#399de5"] ;
134 -> 136 ;
137 [label="gini = 0.0\nsamples = 1\nvalue = [2, 0]\nclass = quiescent", fillcolor="#e58139"] ;
133 -> 137 ;
138 [label="V-J <= 1.65\ngini = 0.41\nsamples = 5\nvalue = [5, 2]\nclass = quiescent", fillcolor="#efb388"] ;
116 -> 138 ;
139 [label="V-J <= 1.57\ngini = 0.5\nsamples = 3\nvalue = [2, 2]\nclass = quiescent", fillcolor="#ffffff"] ;
138 -> 139 ;
140 [label="gini = 0.0\nsamples = 2\nvalue = [2, 0]\nclass = quiescent", fillcolor="#e58139"] ;
139 -> 140 ;
141 [label="gini = 0.0\nsamples = 1\nvalue = [0, 2]\nclass = star forming", fillcolor="#399de5"] ;
139 -> 141 ;
142 [label="gini = 0.0\nsamples = 2\nvalue = [3, 0]\nclass = quiescent", fillcolor="#e58139"] ;
138 -> 142 ;
}